<?xml version="1.0"?>
<opencv_storage>
<my_svm type_id="opencv-ml-svm">
  <svm_type>C_SVC</svm_type>
  <kernel><type>LINEAR</type></kernel>
  <C>1.0000000000000000e-02</C>
  <term_criteria><epsilon>2.2204460492503131e-16</epsilon>
    <iterations>1000</iterations></term_criteria>
  <var_all>1764</var_all>
  <var_count>1764</var_count>
  <class_count>2</class_count>
  <class_labels type_id="opencv-matrix">
    <rows>1</rows>
    <cols>2</cols>
    <dt>i</dt>
    <data>
      -1 1</data></class_labels>
  <sv_total>1</sv_total>
  <support_vectors>
    <_>
      1.09256851e-02 -1.32457935e-03 -5.89949638e-03 4.04635025e-03
      2.78206519e-03 -1.22559806e-02 1.14432268e-03 5.07295411e-03
      1.66370370e-03 1.04625546e-03 1.88640598e-03 -6.19954616e-03
      -1.14063900e-02 -2.81097158e-03 1.01323929e-02 -9.51501250e-04
      -3.97091638e-03 7.83469714e-03 -9.80903278e-04 -7.45113101e-03
      -9.09502618e-03 -2.64914497e-03 1.38270110e-02 2.10691965e-03
      2.23620143e-03 5.36344945e-03 -3.16211488e-03 -1.20026423e-02
      9.84108448e-03 1.04394006e-02 -2.22006557e-03 -8.29892326e-03
      1.23489310e-03 -9.17568896e-03 -1.59394124e-03 5.77755964e-05
      -1.81787871e-02 -8.34836066e-03 -4.32992354e-03 -4.21012519e-03
      -5.25765959e-03 -1.58722838e-03 -8.14996846e-03 2.30447084e-04
      6.28043665e-03 -2.37818155e-03 4.14128881e-03 -6.54723262e-03
      5.81137277e-03 1.12699186e-02 -1.25304386e-02 -3.77677777e-03
      2.78782472e-03 1.95673220e-02 2.84291478e-03 7.20270071e-03
      3.86008690e-03 1.23871220e-02 2.60408334e-02 4.68049245e-03
      3.83749092e-03 2.92271911e-03 1.09933140e-02 -2.06549116e-03
      -1.88453370e-04 4.63996222e-03 -1.02358330e-02 5.23854804e-04
      -1.17342081e-02 -4.52245260e-03 -4.88765119e-03 -2.67165108e-03
      1.95565959e-03 -6.91225694e-04 4.24114894e-03 -6.61027478e-03
      -7.20910728e-03 -3.50551214e-03 1.88255042e-03 -7.20269047e-03
      -4.90747904e-03 -7.02136382e-03 8.25490430e-03 -3.40325106e-03
      1.38085056e-02 -8.11428949e-03 6.17268728e-03 6.46988675e-03
      -3.41397012e-03 -2.72524403e-03 2.51964852e-03 7.23167555e-03
      1.81292854e-02 2.28587911e-03 5.93801495e-03 -3.21543589e-03
      3.00574349e-03 9.55578638e-04 4.43258695e-03 6.48440467e-03
      3.21645010e-03 -7.90188788e-04 -4.42018779e-03 -1.18971476e-02
      -1.43027846e-02 -1.04653444e-02 -1.31838219e-02 -1.69821195e-02
      4.79884213e-03 -1.07182749e-03 2.83349212e-03 -5.08129876e-03
      5.68948779e-03 1.04339588e-02 7.62556680e-03 -8.92490242e-03
      2.13753455e-03 -1.27954725e-02 -3.04438290e-04 -6.20400580e-03
      1.00988317e-02 -1.52150949e-03 -9.92420479e-04 -8.02961364e-03
      5.08518424e-03 -7.93506578e-03 7.37954397e-03 -4.05992614e-03
      4.78276704e-03 2.92195333e-03 3.01076891e-03 -1.77679316e-03
      -1.30815152e-02 -9.61297750e-03 -3.79230245e-03 -1.64820580e-03
      7.84923043e-03 -1.22617669e-02 4.21860907e-03 -1.27663529e-02
      9.74343449e-04 1.19147338e-02 3.61135299e-03 -4.06741659e-04
      1.07060038e-02 -2.77003180e-03 1.34581933e-03 -3.57347820e-03
      -1.15500130e-02 1.40307508e-02 5.29033784e-03 6.83923776e-04
      -1.57352742e-02 3.38326278e-03 -1.31480582e-02 7.03157252e-03
      -4.14425973e-04 -1.82724220e-03 -1.29241291e-02 -3.81754083e-03
      -1.49252079e-02 -3.05182952e-03 -8.22171383e-03 8.95386853e-04
      -1.15862153e-02 -4.04886249e-03 -3.18604551e-04 -4.81717609e-04
      2.70231836e-03 1.22668808e-02 -3.95736517e-03 6.90954644e-03
      9.15318355e-03 -5.17010409e-03 -5.29255951e-03 -3.41523625e-03
      1.30969274e-03 -8.11080274e-04 6.03871653e-04 2.45695491e-03
      9.72627383e-03 7.26188673e-03 1.41109584e-03 -3.48619255e-03
      6.22111419e-03 -6.71575265e-03 -4.63347510e-03 2.05835706e-04
      -3.10001872e-03 4.36390331e-03 1.50838848e-02 3.43311927e-03
      8.08444573e-04 5.50039625e-03 1.03784157e-02 -7.29849050e-03
      1.71588516e-04 -6.31162152e-03 -2.32183724e-03 -9.86554194e-03
      -1.10309571e-02 -6.63801795e-03 -7.26016588e-04 -3.84926191e-03
      7.41636904e-04 -5.87615231e-03 1.28723145e-03 9.89791565e-03
      3.62704461e-03 -2.21157004e-03 6.09098561e-03 6.55186735e-03
      -7.76662864e-03 -4.00094083e-03 -3.14321485e-03 -7.72340968e-03
      1.25211999e-02 8.80730245e-03 9.97185824e-04 9.69202723e-03
      -3.43754678e-03 -3.13855545e-03 -3.49640963e-04 7.09844287e-03
      1.54317431e-02 -7.05089187e-03 8.98564979e-03 -2.80971802e-03
      -1.00032585e-02 5.03432797e-03 3.50196450e-03 -9.37473867e-03
      9.12630092e-03 2.30323663e-03 -4.47832886e-03 -1.93170927e-04
      -4.82894387e-03 -5.42359287e-03 -4.69640316e-03 7.46107986e-03
      3.68840876e-03 -5.46992570e-03 -4.45250334e-04 -3.62314422e-05
      1.03110354e-02 2.53425329e-03 7.97860324e-03 -7.82769267e-03
      -8.26115534e-03 -3.81914014e-03 1.39095134e-03 -3.17964493e-03
      8.80722437e-05 -9.77153890e-03 2.96171580e-04 -1.21982004e-02
      4.32384713e-03 -4.61489335e-03 -2.37068092e-03 -3.10643436e-03
      3.70405847e-03 3.76435672e-03 1.32296979e-02 1.99579750e-03
      -8.51202174e-04 -3.22566391e-03 2.12803762e-03 -2.32025725e-03
      4.35019191e-03 9.57588293e-03 -2.67537613e-03 -2.92360922e-03
      -4.40044468e-03 -4.60815849e-03 -2.71962420e-03 -2.27185967e-03
      3.66142835e-03 1.49522368e-02 5.22144279e-03 -2.02222029e-03
      -4.52991482e-03 3.85850272e-03 -1.40763875e-02 -1.36715323e-02
      -6.42906828e-03 6.36162935e-04 3.51487030e-03 4.09865147e-03
      2.34516151e-03 -1.34204216e-02 -1.02787986e-02 -6.71359058e-03
      -5.08014858e-03 -3.96400923e-03 -9.77685396e-03 -7.21019460e-03
      -1.87208946e-03 -3.56995757e-03 1.24849519e-02 6.33804593e-05
      4.81573259e-03 1.49397401e-03 -3.59268859e-03 5.67651261e-03
      5.86894248e-03 -4.81462060e-03 -5.06434776e-03 5.27272280e-03
      -1.49992686e-02 -1.70147594e-03 -4.87889396e-03 9.77400597e-03
      -6.04047114e-03 5.37133403e-03 -1.40659709e-03 -2.77531007e-03
      -8.56079161e-03 1.08701987e-02 -7.22509483e-03 4.83033340e-03
      2.60499958e-03 -4.21334710e-03 2.06127949e-03 -1.03157312e-02
      -1.32295527e-02 -5.68678323e-03 -2.17847973e-02 6.33127242e-03
      4.68876585e-03 -2.82546366e-03 2.53981864e-03 5.09364251e-03
      2.23213085e-03 -3.11080925e-03 -1.17901107e-02 6.63387636e-03
      5.38115762e-03 -2.94576329e-03 1.04072718e-02 5.25271334e-03
      7.20544439e-03 1.02968030e-02 1.00315819e-02 -1.35311531e-02
      -3.33078066e-03 -6.30607922e-03 7.30670337e-03 8.53752531e-03
      1.00158490e-02 1.68549735e-03 5.65174827e-03 -1.29036661e-02
      9.67630930e-03 -5.42037468e-03 5.25603630e-03 -3.53922462e-03
      9.54946299e-05 -9.00605042e-03 -6.43101055e-03 3.58380494e-03
      -4.74033924e-03 -6.10706164e-04 -5.90685476e-03 5.72547840e-04
      -3.06300749e-03 3.32810776e-03 1.58188734e-02 1.21051061e-03
      -1.28292730e-02 -2.33160728e-03 4.38491069e-03 -1.74945162e-04
      6.13524392e-03 -4.67632711e-03 -1.08027812e-02 -6.95093258e-05
      -8.12048092e-03 -8.93069804e-03 -7.53147155e-03 -2.69527966e-03
      -5.51083183e-04 -5.65904332e-03 -1.14768452e-03 -9.75484401e-03
      -9.49101336e-03 7.74690462e-03 1.13696568e-02 8.87066871e-03
      8.18302203e-03 -1.75886024e-02 -3.37621430e-03 -1.00650713e-02
      6.20831130e-03 -5.51150786e-03 5.41848503e-03 5.87373273e-04
      1.43305417e-02 4.98809759e-03 -3.88295949e-03 5.80304349e-03
      -1.07671297e-03 -7.13255163e-03 2.81682634e-03 -7.95979798e-03
      -5.82710654e-03 -1.48675982e-02 -8.74110591e-03 -7.62977754e-04
      -3.02799162e-03 -2.84715579e-03 -4.63856338e-03 -3.72971147e-02
      -1.17209405e-02 -6.98082196e-03 -3.52619612e-03 3.13371973e-04
      -1.64536219e-02 3.49955750e-03 -1.59166213e-02 -6.27321657e-03
      -1.95231044e-03 -7.33228074e-03 -5.84733207e-03 1.35158561e-02
      2.89086788e-03 7.51806749e-03 3.41654685e-03 4.30176686e-03
      1.13650188e-02 -1.27644907e-03 4.84448625e-03 1.12993727e-02
      -4.89585276e-04 3.59108206e-03 2.34801485e-03 6.42103981e-03
      8.61411821e-03 -5.59351267e-03 1.21382007e-03 2.80064391e-03
      -7.96556380e-03 -4.28676326e-03 -4.58799861e-03 -4.98303864e-03
      3.90359666e-03 5.67219104e-04 -8.40394851e-03 -9.69717558e-03
      -1.54228574e-02 -1.11062722e-02 -7.18854601e-03 1.37961297e-05
      -5.08618960e-03 -7.55923288e-03 6.60282606e-03 -8.05749372e-03
      7.14991800e-03 -7.67573062e-03 -4.99397609e-03 -1.00784365e-03
      -1.86058274e-03 -7.65311718e-03 3.74151301e-03 -8.46058875e-03
      -1.41844209e-02 -4.32866253e-03 2.31426721e-03 -2.88963644e-03
      1.39319487e-02 6.99081225e-03 -1.14105863e-03 -6.06926158e-04
      3.94854182e-03 8.76755919e-03 4.97899717e-03 -4.25354671e-03
      1.02330921e-02 1.86572818e-03 -5.89685375e-03 -7.17807561e-03
      4.52393619e-03 -1.24128275e-02 -4.75630723e-03 -2.68816249e-03
      -1.16142631e-02 5.43071330e-03 4.00211476e-03 6.41925680e-03
      4.13477328e-03 -1.40249124e-03 -3.87185719e-03 -1.16220303e-03
      -9.50467493e-03 -6.85344636e-03 -1.81001518e-02 -1.35940872e-03
      1.94464275e-03 1.34747124e-05 -3.11266951e-04 4.87038167e-03
      3.38067370e-03 -4.24104044e-03 7.46971322e-03 -1.11796772e-02
      5.11763478e-03 -1.09995035e-02 -5.29683335e-03 -1.31010944e-02
      -3.93543363e-04 -8.57371930e-03 8.00507888e-03 7.06087565e-03
      1.58627445e-04 6.00489601e-03 -9.17288847e-03 1.90399140e-02
      -5.74229704e-03 -3.70995404e-04 1.05635626e-02 2.00107531e-03
      -4.42817435e-03 -6.45616185e-03 8.86740535e-03 -2.64164829e-03
      -4.03101044e-03 -8.70242808e-03 -5.37638366e-03 -1.00232279e-02
      1.17200601e-03 7.10055465e-03 2.27374607e-03 -2.69106030e-03
      5.66599751e-03 -1.37030403e-03 3.04963603e-03 2.29469282e-04
      8.88133980e-03 3.70731601e-03 -1.65618444e-03 2.12106993e-03
      6.30395673e-03 -2.11475883e-02 -4.69009916e-04 -1.26746371e-02
      1.09035370e-03 -7.98134319e-03 -8.52674805e-03 3.48628499e-03
      -2.10564956e-03 2.09904811e-03 4.08846047e-03 -6.15443010e-03
      -5.83707681e-03 -3.92789982e-04 -4.64276597e-03 -2.58945581e-03
      -6.27845572e-03 1.77578686e-03 9.52682924e-03 1.22977691e-02
      -5.13417460e-03 -8.31560884e-03 2.52093724e-03 1.86325349e-02
      2.62520800e-04 1.32376850e-02 4.39464697e-04 1.53342390e-03
      -4.47203079e-03 6.00470579e-04 6.89250138e-03 -2.04203110e-02
      1.55480776e-03 -7.86196813e-03 -1.13683054e-02 2.99274013e-03
      -8.46347120e-03 -6.16299314e-03 -2.11311765e-02 -8.85753147e-03
      -1.80025632e-03 2.14680401e-03 1.15387905e-02 -8.10615625e-03
      -3.45728564e-04 1.37258659e-03 8.31631944e-03 -8.77957908e-04
      -2.01937626e-04 2.84508849e-03 5.21594845e-03 1.47009280e-03
      4.01562371e-04 -1.35068204e-02 -2.14752904e-03 -2.29974138e-03
      5.73692610e-03 -4.03806381e-03 2.02328013e-03 4.65821708e-03
      -3.90247512e-03 4.45464626e-03 1.35585666e-03 -8.24070349e-03
      2.18212465e-03 -5.10491943e-03 1.09376535e-02 7.74629554e-03
      3.99764627e-03 -2.75026832e-04 -6.36572856e-03 5.63606573e-03
      4.12519602e-03 -1.23175681e-02 -3.79802613e-03 -1.02916555e-02
      1.90578529e-03 -1.22989863e-02 1.51612386e-02 2.41312012e-03
      -6.17887499e-03 -8.70582089e-03 1.48857674e-02 1.54760461e-02
      -8.54827929e-03 7.85167329e-04 -1.27693010e-03 7.12626660e-03
      -8.28056596e-03 -1.18047697e-02 -8.13413598e-03 5.76503389e-03
      3.26579926e-03 1.54894404e-03 -5.03166753e-04 3.46600940e-03
      -3.33978725e-03 -4.58509242e-03 -1.12704735e-03 2.37039453e-03
      7.23093748e-03 7.85826426e-03 3.10238055e-03 7.35907303e-03
      6.09507598e-03 5.57245361e-03 1.56929903e-02 -8.98604188e-03
      -6.78641116e-03 4.41093871e-04 4.74256510e-03 5.32357581e-03
      8.66792398e-04 -2.41665146e-03 -1.54898758e-03 2.11203806e-05
      7.63729634e-03 -3.53600294e-03 -6.31056784e-04 8.64774361e-03
      -5.42425504e-03 -1.12840803e-02 -3.74728511e-03 4.06193035e-03
      -4.88429936e-03 -1.65735539e-02 3.37519147e-03 -1.22129330e-02
      5.27112652e-03 -4.26123757e-03 1.70443999e-03 1.58002495e-03
      -3.06642521e-03 -6.89158542e-03 -9.86686675e-04 -1.93765888e-03
      -5.91763435e-03 -1.78172402e-02 -7.55430851e-03 -6.28228625e-03
      1.48589099e-02 3.41132749e-03 -1.42411620e-03 -3.80044221e-05
      -2.50529917e-03 -1.19387673e-03 -5.54051204e-03 -2.51338514e-03
      1.56842601e-02 5.50157716e-03 1.23659261e-02 -3.53320455e-03
      -4.16623754e-03 -7.37626664e-03 -1.18906132e-03 4.90062695e-04
      -1.80454110e-04 -1.67907570e-02 7.30339612e-04 7.87162874e-03
      -2.00774837e-02 1.86764495e-03 -3.91060440e-03 -1.38244908e-02
      -5.23696328e-03 6.18753536e-03 -1.98188853e-02 -7.71420891e-04
      1.72593945e-03 1.04166958e-02 -8.94029276e-04 -2.75740516e-03
      1.19075328e-02 6.27693487e-03 1.05140377e-02 1.77010393e-03
      -8.39209650e-03 1.58332195e-03 1.14814322e-02 2.03416240e-03
      4.04458074e-03 -4.62698843e-03 2.45933654e-04 -7.78103713e-03
      3.68585461e-03 -1.11612980e-03 1.85646787e-02 -4.64907801e-03
      -6.90239575e-03 -9.19492915e-03 1.25653739e-03 3.61523853e-04
      -3.72283673e-03 1.83424074e-03 -9.26444493e-03 -6.21016184e-03
      -7.48114428e-03 1.91793952e-03 2.19287933e-03 -8.18150584e-03
      6.36421237e-03 -8.88937898e-03 8.09403136e-05 6.81300275e-03
      -6.88459084e-04 -6.55938499e-03 -5.27199963e-03 3.76337883e-03
      8.94557685e-03 5.19047491e-03 9.06408112e-03 -8.71958211e-03
      -8.46654736e-03 7.63644045e-03 1.42496172e-02 -3.68283974e-04
      -6.77328557e-03 -1.44551443e-02 -1.67814095e-03 2.62543000e-03
      2.15502130e-03 -1.00287749e-02 -6.20977860e-03 -8.27994198e-03
      9.89836827e-03 -2.74099293e-03 3.39165272e-04 -1.25421714e-02
      -8.39251932e-03 5.44052524e-03 -6.38533616e-03 -9.98325460e-03
      -7.24222511e-03 1.13938032e-02 -6.17492886e-04 -1.33269047e-02
      -1.04164891e-02 -2.58828048e-02 -1.63727570e-02 4.30292031e-03
      -3.11690639e-03 -1.34589123e-02 -5.99265983e-03 7.10013509e-03
      -5.38933743e-03 -7.98529573e-03 2.01934786e-03 3.88940494e-03
      5.66771254e-03 -1.04830870e-02 9.11112409e-03 -4.40055551e-03
      3.89407901e-03 9.62454453e-03 -2.03896617e-03 -8.71498045e-03
      -7.27913948e-03 -6.39685057e-03 3.93522670e-03 7.42869498e-03
      -8.43957067e-03 3.13554832e-04 -2.05519274e-02 -4.08407021e-03
      6.41618273e-04 4.48288722e-03 1.15358140e-02 6.56702835e-03
      5.83637599e-03 5.81053668e-04 -2.66716909e-03 1.32631380e-02
      8.44790507e-03 -1.03934435e-03 -1.62653849e-02 7.68167153e-03
      7.74241693e-04 2.81050405e-03 8.39687325e-03 -5.24404692e-03
      7.04746135e-03 -8.70922860e-03 1.25791663e-02 -7.47688767e-03
      -2.77633476e-03 -3.17983958e-03 -1.36854341e-02 7.81544950e-03
      -1.22190425e-02 -1.90759765e-03 8.89445096e-03 -1.36590432e-02
      -1.22438965e-03 -6.86786324e-03 9.17685870e-03 -8.23491998e-03
      1.11246472e-02 1.40888465e-03 1.41128071e-03 4.76530753e-03
      -3.58281261e-03 -5.11569250e-03 7.27185979e-03 -8.75763502e-03
      -3.01959342e-03 -6.75306015e-04 3.52281588e-03 -3.62517359e-03
      -4.31903498e-03 -5.50985662e-03 5.08442936e-05 3.78979929e-03
      3.38577875e-03 -3.70777515e-03 4.50576004e-03 8.65899399e-03
      -1.57690176e-03 -1.22883478e-02 1.48331663e-02 7.78463809e-03
      -2.25241110e-03 8.96120258e-03 -6.83381408e-03 -1.02539244e-03
      -8.67179967e-03 2.83476128e-03 7.37172738e-03 -1.39162000e-02
      8.17541778e-03 -7.34031899e-03 -1.44054769e-02 -1.47932786e-02
      2.31134635e-03 -9.09591466e-03 -1.27631836e-02 -3.30726639e-03
      3.80131591e-04 4.01543686e-03 -1.50900846e-03 1.22260340e-02
      4.79107257e-03 4.65224002e-05 -1.01050325e-02 -1.33462306e-02
      -9.56143718e-03 -4.65360610e-03 -1.53674809e-02 5.42736659e-03
      3.34297307e-03 -1.04990671e-03 -1.27665442e-03 -2.26151501e-03
      3.45407170e-03 1.12498272e-02 1.04888491e-02 -7.87194818e-03
      -5.02115302e-03 -2.84960447e-03 -7.35754671e-04 -7.59178866e-03
      -5.83338877e-03 -4.93031973e-03 6.25359919e-03 -5.84231550e-03
      -2.53337738e-03 -6.58047758e-03 1.54484147e-02 2.64702993e-03
      -6.79576164e-03 -2.99284258e-03 -2.83427234e-03 6.45343040e-04
      -8.79625697e-03 3.40929464e-03 -1.19585283e-02 8.16326181e-04
      1.43878558e-03 -1.33014494e-03 7.41864974e-03 -4.23965557e-03
      1.80394296e-03 3.35435313e-03 1.63146795e-03 -3.79508454e-03
      -3.19765741e-03 -9.06825345e-03 5.65462932e-03 -3.69577343e-03
      -1.62357086e-04 4.52535599e-03 -1.17035955e-02 -9.03185923e-03
      -6.80108368e-03 -6.14842121e-03 9.38527845e-03 -6.73699565e-03
      3.63440183e-03 -5.33329044e-03 -6.06922992e-03 8.79729632e-03
      1.08814100e-02 -5.74581232e-03 6.03340752e-03 -2.51792348e-03
      -1.77217345e-03 -1.55851431e-03 8.33350758e-04 6.96225138e-03
      -1.02622854e-02 -6.86556846e-03 1.68122165e-02 1.52295956e-03
      1.53694104e-03 -1.35578506e-03 6.86855114e-04 -3.30163725e-03
      -1.68391806e-03 3.51188821e-04 3.26112635e-03 9.82895307e-03
      5.64228324e-03 3.68504901e-03 -1.16821285e-03 -1.01552149e-02
      -9.32756520e-04 -8.56775697e-03 1.39396335e-03 -1.38104754e-02
      -1.02921398e-02 2.06260534e-04 1.38265081e-03 -3.33361141e-03
      6.88900799e-03 -5.36954775e-03 -1.30548328e-03 9.56639007e-04
      1.01393892e-03 1.21621054e-03 -5.40143624e-03 2.79265834e-04
      -5.74221695e-03 4.48025018e-03 6.93874853e-03 8.16737954e-03
      -2.02897936e-02 7.03545799e-03 1.02083310e-02 1.64847157e-03
      -1.25847443e-03 -1.01679945e-02 -1.34162921e-02 -4.59900126e-03
      -2.96793552e-03 -2.03529466e-03 4.42552700e-04 -4.55338450e-04
      -2.27882899e-03 -9.44046862e-03 1.37026915e-02 -1.63948478e-03
      -2.29513098e-04 -1.42579312e-02 -4.60949494e-04 -1.09794112e-02
      -9.35165025e-03 -7.97456037e-03 3.05760349e-03 -4.93443804e-03
      -5.07476181e-03 6.88400120e-03 -1.47119025e-03 2.24294956e-03
      9.50740930e-03 -1.93911698e-02 4.63663274e-03 -4.11164435e-03
      1.13097010e-02 -1.20976428e-02 -1.67667698e-02 1.67806738e-03
      -5.62726473e-03 -8.49847682e-03 -9.61726625e-03 -4.68302425e-03
      -5.46107907e-03 -4.87011421e-04 -1.65317184e-03 5.61429560e-03
      5.95394755e-03 -1.23474607e-02 1.59597106e-03 -1.55872433e-03
      -1.15879588e-02 -1.15956180e-02 1.05815073e-02 -1.05369948e-02
      2.34864256e-03 8.72414676e-04 4.31523100e-03 -7.27841258e-03
      5.39356750e-03 -1.37336331e-03 4.40285355e-03 9.52281617e-03
      5.86352730e-03 -5.98888425e-03 5.95044764e-03 1.18907765e-02
      1.18404732e-03 2.85709463e-03 6.65287429e-04 3.69699765e-03
      4.54409193e-04 9.57024097e-03 -1.38534210e-03 -5.86714130e-03
      5.86563628e-03 -9.58946440e-03 -2.28889380e-03 -3.79889098e-04
      -1.33035239e-03 1.64106220e-03 -1.03277620e-03 2.32224306e-03
      1.99536630e-03 -3.36048706e-03 -8.97342619e-03 -6.28123991e-03
      -1.07040852e-02 -1.15370462e-02 5.68655552e-03 7.38908071e-03
      -1.49358122e-03 6.62726117e-04 6.23521674e-03 8.95920116e-03
      -2.81005609e-03 1.53428251e-02 6.10784674e-03 -1.70133531e-03
      9.83367674e-04 2.11306452e-03 9.15594772e-03 6.13551168e-03
      2.33752187e-03 9.50899441e-03 3.15522775e-03 6.03842083e-03
      2.80320970e-03 8.20717402e-03 -6.78090332e-03 7.24716019e-03
      3.19402665e-03 7.39110122e-03 -1.80028193e-03 -1.22651244e-02
      -7.74873747e-03 -4.43539815e-03 -4.77869529e-03 -1.79731883e-02
      5.83760301e-03 -4.85647377e-03 -5.69621334e-03 -8.14132858e-03
      -1.78757031e-02 -1.02666281e-02 -1.48601865e-03 -8.86289030e-03
      8.46345630e-03 6.21093030e-04 1.85350160e-04 8.38785898e-04
      -7.29500689e-03 7.86089431e-03 -8.46153474e-04 1.64482836e-03
      1.32489661e-02 5.70445694e-03 -1.93979766e-03 2.44003208e-03
      1.14474306e-02 -2.31375685e-03 3.20713106e-03 -3.75599274e-03
      -7.78175564e-03 -9.95830516e-04 8.06115195e-03 4.31162422e-04
      9.29073954e-04 8.35000817e-03 1.62148464e-03 -8.33756570e-03
      1.33098953e-03 1.13926781e-02 -5.53433178e-03 -8.74227029e-04
      1.21302875e-02 -2.22549587e-03 4.16933000e-03 -1.01073203e-03
      -6.01579552e-04 -9.54642054e-03 -4.31923708e-03 3.30489920e-03
      -8.87515926e-05 -6.12037396e-03 -1.82220829e-03 6.84656110e-03
      -1.37239518e-02 7.04300171e-03 1.85441633e-03 -5.05496236e-03
      3.32536362e-03 -4.20016982e-03 -8.03788379e-03 -2.19482090e-03
      -6.39628852e-04 -6.41614012e-03 3.63148656e-03 -1.43779237e-02
      2.74546957e-03 1.57693948e-03 4.95827571e-03 1.81978438e-02
      7.82120042e-03 -1.09437376e-03 -7.58968340e-03 -1.47911196e-03
      3.38331168e-03 7.32078915e-04 1.52344420e-03 8.92959163e-03
      -2.29188940e-03 -2.05248338e-03 1.71396742e-03 3.59326764e-03
      5.28685190e-03 3.30194435e-03 -5.89282368e-04 -1.93079244e-02
      -6.82147266e-03 1.04589835e-02 -1.07042082e-02 -7.57410843e-03
      -1.60180610e-02 5.14262356e-03 3.64175229e-03 3.06407153e-03
      -4.26637754e-03 -4.06175619e-03 -6.46834029e-03 8.48885975e-05
      -4.53551160e-03 -9.78919864e-03 3.95280216e-03 -6.95472537e-03
      1.55722955e-03 1.51734904e-03 3.29021900e-03 2.43881741e-03
      -1.84484851e-02 5.89451799e-03 1.32667087e-02 -2.62535061e-03
      -5.51339472e-03 9.86476429e-04 2.48449622e-04 -2.29924102e-03
      -2.02713744e-03 -4.31942288e-03 1.02856290e-02 9.37792659e-03
      4.01923666e-04 4.71376785e-04 1.33617455e-03 -7.98521470e-03
      -1.50236748e-02 -3.38026322e-03 -2.47783447e-03 -9.88513511e-03
      8.78066174e-04 -1.44554796e-02 -7.75496126e-04 1.50288665e-03
      -6.44058362e-03 -9.60126333e-03 1.34182274e-02 -6.08835509e-03
      2.63091829e-03 -9.25328583e-03 -8.86814960e-05 -1.01114642e-02
      -6.25660690e-03 1.93029940e-02 7.93425925e-03 3.13835475e-03
      -1.15381728e-03 7.86968565e-04 4.45193797e-03 2.93299789e-03
      7.04928720e-03 6.14813063e-03 2.20668665e-03 5.65624330e-03
      8.73613823e-03 6.32809475e-03 5.07804158e-04 -1.67310121e-04
      -1.74841005e-03 3.90888099e-03 -6.41479669e-03 9.57350712e-03
      -2.08562124e-03 -3.90523463e-03 -1.76562145e-02 1.79854948e-02
      -1.41842465e-03 -2.63122562e-03 -4.78090066e-03 -5.64863719e-03
      4.50531719e-03 -7.00602401e-03 2.70037935e-03 9.98059171e-04
      -1.01379752e-02 4.09515481e-03 -3.02311149e-04 -2.81705242e-03
      3.17565748e-03 5.84716536e-03 -6.60537696e-03 -1.39494205e-03
      -7.06182513e-03 -3.04120616e-03 -2.81846826e-03 -4.09980444e-03
      5.65197924e-03 -6.02909550e-03 -1.12658804e-02 -5.43548260e-03
      1.86978432e-03 -4.02564323e-03 -5.58870519e-03 2.01139210e-05
      1.88542774e-03 7.14913104e-03 -1.99838332e-03 7.11874571e-03
      4.04744735e-03 3.89750651e-03 -4.32568602e-03 4.13342984e-03
      1.79154507e-03 -5.39428729e-04 7.68840639e-03 6.55534351e-03
      3.50518059e-03 6.01903629e-03 -3.73536698e-03 9.54932533e-03
      -2.72419211e-03 -1.09329281e-04 1.68258441e-03 1.09632714e-02
      3.29171517e-03 -1.07441023e-02 -9.19166394e-03 -1.04334326e-02
      -9.73790698e-03 -3.75158759e-03 3.45235167e-04 4.48268978e-03
      4.93711792e-04 2.37272982e-03 1.29046207e-02 -4.31701168e-03
      -9.45659261e-03 1.03410846e-03 -1.16601922e-02 -1.39830429e-02
      -1.47526916e-02 -6.21066010e-03 -5.41359140e-03 8.36351421e-03
      4.65375418e-03 7.32138427e-03 -2.01021368e-03 2.91509018e-03
      4.95778723e-03 1.90975773e-03 3.09921219e-03 -4.89162223e-04
      3.15243984e-03 -8.56209081e-03 -8.28164537e-03 -6.88327709e-04
      -3.60279546e-06 7.65443593e-03 4.99442779e-03 -7.44129391e-03
      1.02584865e-02 -1.06273303e-02 -9.51687340e-03 -3.77445272e-03
      2.06133574e-02 -3.42807150e-04 6.44672709e-03 5.78957796e-03
      -1.23326173e-02 -8.17384198e-03 -1.02528799e-02 -9.40106623e-03
      -8.72097677e-04 -6.66142441e-03 2.17012130e-03 -1.01981852e-02
      -1.94911771e-02 -4.95732808e-03 -2.40551215e-02 1.77382526e-03
      8.85763299e-03 -3.88817466e-03 9.67377611e-03 -5.96872938e-04
      -3.97024537e-03 1.27819937e-03 -6.96751848e-03 -5.99978084e-04
      4.30456828e-03 -1.45574817e-02 -8.88905767e-03 2.13389168e-03
      -5.79555752e-03 -1.25269461e-02 -9.79386363e-03 4.27667517e-03
      5.93746500e-03 5.08398935e-03 -2.28064600e-03 1.13541457e-04
      -3.65685718e-03 -1.04609616e-02 -4.39006370e-03 -8.74014478e-03
      -4.27571312e-03 3.06062982e-03 -1.48071256e-02 1.23024767e-03
      -5.68540068e-04 2.63389922e-03 -4.98340698e-03 -3.60905868e-03
      1.00533664e-02 1.02780443e-02 2.63652182e-03 -1.22267278e-02
      1.22398930e-03 -3.38168116e-03 7.53449043e-03 -1.18821627e-02
      3.40659288e-03 1.35892781e-03 -5.13915671e-03 1.33970904e-03
      -6.11268170e-03 -1.10739842e-02 2.54781498e-03 -1.31140705e-02
      -3.42948874e-03 2.16378074e-04 6.30475697e-04 -3.91036691e-03
      -7.72708794e-03 6.06330205e-03 -1.48465112e-02 1.21536367e-02
      2.96786823e-03 -3.35471286e-03 -1.89217797e-03 4.40660492e-03
      7.91185594e-04 1.29730636e-02 -9.52087902e-03 4.78400011e-03
      1.81165095e-02 4.32676962e-03 5.49307093e-03 -4.72783530e-03
      8.36840458e-03 3.86381336e-03 1.03376750e-02 -2.43925676e-02
      1.52964669e-03 -7.57482462e-03 -1.97953568e-03 5.26126334e-03
      -6.96544861e-03 -4.52924566e-03 -9.03908629e-03 -1.05069354e-02
      4.38494608e-03 -1.62117109e-02 -2.73718289e-03 -1.16717508e-02
      -4.06931713e-03 -9.36673675e-03 2.91258842e-03 4.42676246e-03
      1.28533342e-03 -4.61377669e-03 1.35951918e-02 -2.84124806e-04
      -1.29099900e-03 -7.61575671e-03 1.16504654e-02 -4.94271237e-03
      -3.67561798e-03 9.02697537e-03 -1.02839470e-02 8.07895791e-03
      3.60910548e-03 5.15106553e-03 -9.09168925e-03 6.10284274e-03
      2.67816219e-03 4.97248955e-03 -2.46919284e-04 -4.34438698e-03
      -1.75313819e-02 -2.69521959e-02 -1.29674384e-02 -5.09138126e-03
      4.21445537e-03 1.31339114e-03 -6.35855831e-03 -1.86167005e-03
      -1.50707848e-02 -9.34430771e-03 1.16672344e-03 3.08284332e-04
      5.64784836e-03 3.36675835e-03 -3.28755891e-03 -8.02092068e-03
      1.08934604e-02 3.84485465e-04 -5.80368936e-03 7.02725723e-03
      -4.80334321e-03 4.01975121e-03 5.18264202e-03 1.41779915e-03
      2.61720642e-03 -8.23015813e-03 1.21794278e-02 5.67890424e-03
      -6.75661722e-03 1.23539045e-02 1.12590212e-02 1.73608528e-03
      -9.41407809e-04 1.52289154e-04 1.41016934e-02 -2.86650774e-03
      2.40343902e-03 5.81760611e-03 6.67224126e-03 6.32802816e-03
      -3.28926137e-03 4.03324049e-03 5.18914276e-05 -7.19309784e-03
      4.48869308e-03 5.01972204e-03 -1.26135279e-03 -4.93626622e-03
      3.04708886e-03 -4.84408665e-04 -7.90174957e-03 1.59057148e-03
      -9.08611342e-03 -2.65996763e-03 -4.58608242e-03 -5.11934422e-03
      -9.29836463e-03 -7.11601600e-03 -4.24464699e-03 5.69526851e-03
      8.23212229e-03 -1.68793537e-02 4.39373124e-03 -4.93884087e-03
      6.77183503e-03 7.24410522e-04 -5.59959281e-03 7.57481763e-03
      -1.85403449e-04 2.33259663e-04 8.77083186e-03 7.73951598e-03
      7.63940904e-03 2.37683952e-03 4.22863942e-03 -2.33813692e-02
      -3.40656820e-03 -7.77239958e-03 3.27486545e-03 -4.68158908e-03
      6.65781461e-03 2.17529552e-04 -9.72750224e-03 1.25347227e-02
      3.95715563e-03 2.40308396e-03 -5.27584751e-04 -1.97271630e-03
      9.20814835e-03 -3.38168233e-03 9.27578006e-03 -5.53389639e-03
      -2.64968420e-03 -1.17219221e-02 -1.72714498e-02 8.37743469e-03
      2.28067394e-03 -3.29283695e-03 1.09666784e-03 -2.33565597e-03
      -5.40525327e-03 -9.35636926e-03 2.28763529e-05 1.01793522e-03
      -3.42363399e-03 -3.17270029e-03 -1.40338467e-04 -8.16311035e-03
      2.85336399e-03 -2.33936030e-03 6.84875064e-03 4.75514727e-03
      -4.36685001e-03 -1.40670482e-02 -1.60797674e-03 -1.92411442e-03
      1.34277726e-02 -3.04635265e-04 -3.29340738e-03 -8.76527745e-03
      3.88802844e-03 -1.54460710e-03 8.41343589e-03 1.56056304e-02
      8.82179663e-03 -8.68517382e-04 -1.82980788e-03 -1.15535241e-02
      -5.83242439e-03 3.40258656e-03 -6.88675884e-03 -2.45137746e-03
      4.87680081e-03 2.95568630e-03 2.10954854e-03 -5.63884806e-03
      9.56671126e-03 8.93868564e-04 -2.24138843e-03 5.20534115e-03
      -7.04752095e-03 -9.21948254e-03 -7.26173352e-03 -1.11391000e-03
      -2.87079834e-03 1.34116374e-02 9.41965543e-03 -1.12065412e-02
      2.00685058e-02 -1.21288523e-02 -6.40642131e-03 -1.33382306e-02
      1.36510953e-02 -5.11295069e-03 -4.26489813e-03 1.19272722e-02
      1.64289807e-03 -3.67504987e-03 4.41425201e-03 -1.03133656e-02
      8.64543859e-03 1.00312131e-02 -4.48756432e-03 1.55155240e-02
      -1.31083035e-03 3.32852965e-03 -4.90864692e-03 -1.47142482e-03
      -2.05703848e-03 5.59847243e-03 -8.73794407e-03 -1.68389268e-02
      -1.57093089e-02 5.71314013e-03 3.39936512e-03 7.66654313e-03
      -1.72777218e-03 5.25690662e-03 -9.85646155e-04 -2.06893962e-03
      2.45139701e-03 -9.82341357e-03 -3.27133643e-03 -8.77815066e-04
      5.53303771e-03 -6.28016563e-03 -8.76148604e-03 -4.27020481e-03
      4.33932617e-03 2.94830999e-04 -6.76576048e-03 -1.46729304e-02
      4.29632142e-03 -1.53233130e-02 -5.33361034e-03 3.52721103e-03
      -3.93630890e-03 1.26398560e-02 8.94377101e-03 1.27780164e-04
      -2.23674142e-05 -1.17324560e-03 4.33896761e-03 1.11002382e-02
      1.07925124e-02 1.22740073e-02 -1.06947552e-02 -2.93512107e-03
      -1.21696796e-02 1.21118128e-02 -4.21525072e-03 -1.51686708e-03
      6.43896405e-03 2.28917296e-03 1.34368222e-02 -8.32670555e-03
      -6.91871485e-03 -4.52094362e-04 -2.12852214e-03 3.58599704e-03
      3.46155721e-04 7.28180632e-03 -1.21530732e-02 -9.42796189e-03
      -3.17706051e-03 -2.59060902e-03 -4.46746778e-03 -9.64657683e-03
      -6.78589859e-04 -8.76012817e-03 5.09925280e-03 1.28207309e-03
      1.46519090e-03 -4.47465864e-04 3.00054578e-03 -4.03613457e-03
      -4.43221582e-03 -4.36337432e-03 8.29191413e-03 8.07251222e-03
      5.46193635e-03 7.75210699e-03 7.50428438e-03 1.33939721e-02
      7.75675569e-03 -3.99410212e-03 1.59201436e-02 4.65051067e-04
      4.47771931e-03 3.16603133e-03 3.55850346e-03 -1.24457926e-02
      -1.36801228e-03 -5.80473384e-03 8.10497534e-03 2.65837554e-03
      -1.54257752e-03 4.49022232e-03 -2.35783053e-03 1.80336152e-04
      -5.70692215e-03 -5.85893169e-04 9.23211873e-03 -6.18143333e-03
      -8.93829297e-03 3.73372389e-03 3.19165783e-03 -7.18410546e-03
      1.32122508e-03 -1.18585546e-02 1.97153213e-03 -8.55431985e-03
      -5.07278834e-03 2.78255995e-03 3.60339042e-03 1.28103513e-03
      9.00393166e-03 -1.17250602e-03 3.89099866e-03 9.47180763e-03
      9.27634828e-04 -3.15401540e-03 -2.46755276e-02 5.78786805e-03
      2.64656823e-03 7.36469729e-03 9.55412257e-03 7.15703936e-03
      -4.27009119e-03 -7.42739858e-03 9.16805770e-03 1.60404842e-03
      -1.24617782e-03 1.97753427e-03 4.22873255e-03 -2.30136584e-03</_></support_vectors>
  <decision_functions>
    <_>
      <sv_count>1</sv_count>
      <rho>-2.2985588073730351e-01</rho>
      <alpha>
        1.</alpha>
      <index>
        0</index></_></decision_functions></my_svm>
</opencv_storage>
